digraph Tree {
node [shape=box, style="filled, rounded", color="black", fontname=helvetica] ;
edge [fontname=helvetica] ;
0 [label="domestic relationship type_has husband <= 0.5\nentropy = 0.429\nsamples = 4898\nvalue = [430, 4468]", fillcolor="#399de5e6"] ;
1 [label="birth date <= 646228800.0\nentropy = 0.209\nsamples = 4258\nvalue = [140, 4118]", fillcolor="#399de5f6"] ;
0 -> 1 [labeldistance=2.5, labelangle=45, headlabel="True"] ;
2 [label="monthly work <= 198.0\nentropy = 0.283\nsamples = 2724\nvalue = [134, 2590]", fillcolor="#399de5f2"] ;
1 -> 2 ;
3 [label="school level_some post graduate <= 0.5\nentropy = 0.22\nsamples = 2436\nvalue = [86, 2350]", fillcolor="#399de5f6"] ;
2 -> 3 ;
4 [label="school level_college graduate <= 0.5\nentropy = 0.187\nsamples = 2316\nvalue = [66, 2250]", fillcolor="#399de5f8"] ;
3 -> 4 ;
5 [label="school level_advanced post graduate <= 0.5\nentropy = 0.149\nsamples = 2008\nvalue = [43, 1965]", fillcolor="#399de5f9"] ;
4 -> 5 ;
6 [label="domestic status_married 2 <= 0.5\nentropy = 0.136\nsamples = 1992\nvalue = [38, 1954]", fillcolor="#399de5fa"] ;
5 -> 6 ;
7 [label="profession_specialist technician <= 0.5\nentropy = 0.123\nsamples = 1965\nvalue = [33, 1932]", fillcolor="#399de5fb"] ;
6 -> 7 ;
8 [label="profession_C-level <= 0.5\nentropy = 0.104\nsamples = 1824\nvalue = [25, 1799]", fillcolor="#399de5fb"] ;
7 -> 8 ;
9 [label="job type_private <= 0.5\nentropy = 0.083\nsamples = 1648\nvalue = [17, 1631]", fillcolor="#399de5fc"] ;
8 -> 9 ;
10 [label="entropy = 0.158\nsamples = 392\nvalue = [9, 383]", fillcolor="#399de5f9"] ;
9 -> 10 ;
11 [label="entropy = 0.056\nsamples = 1256\nvalue = [8, 1248]", fillcolor="#399de5fd"] ;
9 -> 11 ;
12 [label="domestic status_single <= 0.5\nentropy = 0.267\nsamples = 176\nvalue = [8, 168]", fillcolor="#399de5f3"] ;
8 -> 12 ;
13 [label="entropy = 0.326\nsamples = 134\nvalue = [8, 126]", fillcolor="#399de5ef"] ;
12 -> 13 ;
14 [label="entropy = 0.0\nsamples = 42\nvalue = [0, 42]", fillcolor="#399de5ff"] ;
12 -> 14 ;
15 [label="entropy = 0.314\nsamples = 141\nvalue = [8, 133]", fillcolor="#399de5f0"] ;
7 -> 15 ;
16 [label="entropy = 0.691\nsamples = 27\nvalue = [5, 22]", fillcolor="#399de5c5"] ;
6 -> 16 ;
17 [label="entropy = 0.896\nsamples = 16\nvalue = [5, 11]", fillcolor="#399de58b"] ;
5 -> 17 ;
18 [label="birth date <= 173188800.0\nentropy = 0.383\nsamples = 308\nvalue = [23, 285]", fillcolor="#399de5ea"] ;
4 -> 18 ;
19 [label="entropy = 0.531\nsamples = 116\nvalue = [14, 102]", fillcolor="#399de5dc"] ;
18 -> 19 ;
20 [label="monthly work <= 186.0\nentropy = 0.273\nsamples = 192\nvalue = [9, 183]", fillcolor="#399de5f2"] ;
18 -> 20 ;
21 [label="birth date <= 362404800.0\nentropy = 0.251\nsamples = 191\nvalue = [8, 183]", fillcolor="#399de5f4"] ;
20 -> 21 ;
22 [label="entropy = 0.0\nsamples = 47\nvalue = [0, 47]", fillcolor="#399de5ff"] ;
21 -> 22 ;
23 [label="entropy = 0.31\nsamples = 144\nvalue = [8, 136]", fillcolor="#399de5f0"] ;
21 -> 23 ;
24 [label="entropy = 0.0\nsamples = 1\nvalue = [1, 0]", fillcolor="#e58139ff"] ;
20 -> 24 ;
25 [label="entropy = 0.65\nsamples = 120\nvalue = [20, 100]", fillcolor="#399de5cc"] ;
3 -> 25 ;
26 [label="school level_advanced post graduate <= 0.5\nentropy = 0.65\nsamples = 288\nvalue = [48, 240]", fillcolor="#399de5cc"] ;
2 -> 26 ;
27 [label="profession_defense contractor <= 0.5\nentropy = 0.605\nsamples = 277\nvalue = [41, 236]", fillcolor="#399de5d3"] ;
26 -> 27 ;
28 [label="birth date <= -394459200.0\nentropy = 0.581\nsamples = 274\nvalue = [38, 236]", fillcolor="#399de5d6"] ;
27 -> 28 ;
29 [label="entropy = 0.0\nsamples = 16\nvalue = [0, 16]", fillcolor="#399de5ff"] ;
28 -> 29 ;
30 [label="school level_primary school <= 0.5\nentropy = 0.603\nsamples = 258\nvalue = [38, 220]", fillcolor="#399de5d3"] ;
28 -> 30 ;
31 [label="school level_college graduate <= 0.5\nentropy = 0.581\nsamples = 252\nvalue = [35, 217]", fillcolor="#399de5d6"] ;
30 -> 31 ;
32 [label="job type_state-gov <= 0.5\nentropy = 0.49\nsamples = 178\nvalue = [19, 159]", fillcolor="#399de5e1"] ;
31 -> 32 ;
33 [label="birth date <= -142171200.0\nentropy = 0.446\nsamples = 172\nvalue = [16, 156]", fillcolor="#399de5e5"] ;
32 -> 33 ;
34 [label="entropy = 0.863\nsamples = 21\nvalue = [6, 15]", fillcolor="#399de599"] ;
33 -> 34 ;
35 [label="entropy = 0.352\nsamples = 151\nvalue = [10, 141]", fillcolor="#399de5ed"] ;
33 -> 35 ;
36 [label="entropy = 1.0\nsamples = 6\nvalue = [3, 3]", fillcolor="#e5813900"] ;
32 -> 36 ;
37 [label="entropy = 0.753\nsamples = 74\nvalue = [16, 58]", fillcolor="#399de5b9"] ;
31 -> 37 ;
38 [label="entropy = 1.0\nsamples = 6\nvalue = [3, 3]", fillcolor="#e5813900"] ;
30 -> 38 ;
39 [label="entropy = 0.0\nsamples = 3\nvalue = [3, 0]", fillcolor="#e58139ff"] ;
27 -> 39 ;
40 [label="entropy = 0.946\nsamples = 11\nvalue = [7, 4]", fillcolor="#e581396d"] ;
26 -> 40 ;
41 [label="interest earned <= 2129.5\nentropy = 0.037\nsamples = 1534\nvalue = [6, 1528]", fillcolor="#399de5fe"] ;
1 -> 41 ;
42 [label="birth date <= 740836800.0\nentropy = 0.032\nsamples = 1533\nvalue = [5, 1528]", fillcolor="#399de5fe"] ;
41 -> 42 ;
43 [label="domestic status_married 2 <= 0.5\nentropy = 0.102\nsamples = 377\nvalue = [5, 372]", fillcolor="#399de5fc"] ;
42 -> 43 ;
44 [label="profession_defense contractor <= 0.5\nentropy = 0.085\nsamples = 375\nvalue = [4, 371]", fillcolor="#399de5fc"] ;
43 -> 44 ;
45 [label="school level_primary school <= 0.5\nentropy = 0.068\nsamples = 371\nvalue = [3, 368]", fillcolor="#399de5fd"] ;
44 -> 45 ;
46 [label="domestic relationship type_living with child <= 0.5\nentropy = 0.049\nsamples = 365\nvalue = [2, 363]", fillcolor="#399de5fe"] ;
45 -> 46 ;
47 [label="entropy = 0.0\nsamples = 254\nvalue = [0, 254]", fillcolor="#399de5ff"] ;
46 -> 47 ;
48 [label="entropy = 0.13\nsamples = 111\nvalue = [2, 109]", fillcolor="#399de5fa"] ;
46 -> 48 ;
49 [label="entropy = 0.65\nsamples = 6\nvalue = [1, 5]", fillcolor="#399de5cc"] ;
45 -> 49 ;
50 [label="entropy = 0.811\nsamples = 4\nvalue = [1, 3]", fillcolor="#399de5aa"] ;
44 -> 50 ;
51 [label="entropy = 1.0\nsamples = 2\nvalue = [1, 1]", fillcolor="#e5813900"] ;
43 -> 51 ;
52 [label="entropy = 0.0\nsamples = 1156\nvalue = [0, 1156]", fillcolor="#399de5ff"] ;
42 -> 52 ;
53 [label="entropy = 0.0\nsamples = 1\nvalue = [1, 0]", fillcolor="#e58139ff"] ;
41 -> 53 ;
54 [label="profession_specialist technician <= 0.5\nentropy = 0.994\nsamples = 640\nvalue = [290, 350]", fillcolor="#399de52c"] ;
0 -> 54 [labeldistance=2.5, labelangle=-45, headlabel="False"] ;
55 [label="profession_other <= 0.5\nentropy = 0.962\nsamples = 509\nvalue = [196, 313]", fillcolor="#399de55f"] ;
54 -> 55 ;
56 [label="birth date <= 551620800.0\nentropy = 0.987\nsamples = 428\nvalue = [185, 243]", fillcolor="#399de53d"] ;
55 -> 56 ;
57 [label="interest earned <= 1794.0\nentropy = 1.0\nsamples = 325\nvalue = [162, 163]", fillcolor="#399de502"] ;
56 -> 57 ;
58 [label="profession_agriculture <= 0.5\nentropy = 0.998\nsamples = 307\nvalue = [145, 162]", fillcolor="#399de51b"] ;
57 -> 58 ;
59 [label="school level_entry level college <= 0.5\nentropy = 0.999\nsamples = 301\nvalue = [145, 156]", fillcolor="#399de512"] ;
58 -> 59 ;
60 [label="profession_C-level <= 0.5\nentropy = 0.99\nsamples = 238\nvalue = [105, 133]", fillcolor="#399de536"] ;
59 -> 60 ;
61 [label="profession_technology support <= 0.5\nentropy = 0.965\nsamples = 182\nvalue = [71, 111]", fillcolor="#399de55c"] ;
60 -> 61 ;
62 [label="entropy = 0.947\nsamples = 170\nvalue = [62, 108]", fillcolor="#399de56d"] ;
61 -> 62 ;
63 [label="entropy = 0.811\nsamples = 12\nvalue = [9, 3]", fillcolor="#e58139aa"] ;
61 -> 63 ;
64 [label="entropy = 0.967\nsamples = 56\nvalue = [34, 22]", fillcolor="#e581395a"] ;
60 -> 64 ;
65 [label="entropy = 0.947\nsamples = 63\nvalue = [40, 23]", fillcolor="#e581396c"] ;
59 -> 65 ;
66 [label="entropy = 0.0\nsamples = 6\nvalue = [0, 6]", fillcolor="#399de5ff"] ;
58 -> 66 ;
67 [label="entropy = 0.31\nsamples = 18\nvalue = [17, 1]", fillcolor="#e58139f0"] ;
57 -> 67 ;
68 [label="entropy = 0.766\nsamples = 103\nvalue = [23, 80]", fillcolor="#399de5b6"] ;
56 -> 68 ;
69 [label="entropy = 0.573\nsamples = 81\nvalue = [11, 70]", fillcolor="#399de5d7"] ;
55 -> 69 ;
70 [label="entropy = 0.859\nsamples = 131\nvalue = [94, 37]", fillcolor="#e581399b"] ;
54 -> 70 ;
}
